{
    "input_size": 3,
    "layer_size_vectors": [
        [
            3,
            "sigmoid"
        ],
        [
            10,
            "sigmoid"
        ],
        [
            12,
            "sigmoid"
        ],
        [
            10,
            "sigmoid"
        ],
        [
            3,
            "sigmoid"
        ]
    ],
    "learning_rate": -0.01,
    "weight_initializer": "simple",
    "l2_penalty": 0.01,
    "regularization_method": "none",
    "weights_set": [
        [
            [
                -0.29786014523278087,
                1.5380756492286527,
                -2.1882628513080684
            ],
            [
                -0.6423542775769707,
                -0.12512609138650568,
                -2.4973877312529558
            ],
            [
                -1.5479937186758594,
                0.7725927620517044,
                0.7607264798168808
            ]
        ],
        [
            [
                -1.4271392894846375,
                0.9885889963875807,
                -2.937016814724787
            ],
            [
                0.11275585660471565,
                -0.2874116721069661,
                -0.46314409294106706
            ],
            [
                -2.9631822362350495,
                -0.5694339798067364,
                0.1004108168883326
            ],
            [
                -3.0154533964963415,
                0.6462837320673078,
                -1.8426983349102661
            ],
            [
                -0.980694335655869,
                -2.5381446003811217,
                -2.3248247297318616
            ],
            [
                -1.416223073681855,
                0.3483606209514916,
                -0.4089156443246005
            ],
            [
                -0.9170581652033338,
                -0.28495942892490184,
                -3.0254349764656947
            ],
            [
                -1.6231467230311065,
                -0.5775769527287664,
                -0.9259952487854665
            ],
            [
                0.35336720513401787,
                0.4869143454179316,
                -2.9783468131692783
            ],
            [
                -2.1196742519707636,
                0.07055778961688325,
                -2.509714045095522
            ]
        ],
        [
            [
                0.5450439218630387,
                1.0970978842127406,
                -0.4960664096271196,
                -1.1280530892462937,
                -0.92613144438773,
                0.07037635760199482,
                -0.29315043179100814,
                -1.355854960221998,
                0.9300586353674714,
                -1.4756190704656138
            ],
            [
                0.40296240334517097,
                0.7923312730331713,
                -2.440034317764035,
                -1.4984049429784128,
                0.12194500991148369,
                -2.2906398076890255,
                -1.3221293989796683,
                -1.944243754236035,
                0.9842213795109118,
                -0.7034944785081986
            ],
            [
                -0.5483459423576768,
                0.3922370793997418,
                -1.9217066211428444,
                -0.15556310394518563,
                -1.9170226031137887,
                0.8922579409458268,
                -1.6999605263273203,
                0.8419235519636641,
                -0.34466116441056716,
                -1.4795265504407473
            ],
            [
                0.12344133279190658,
                -0.03601518542614614,
                -2.1854678888230836,
                -3.0045178174171094,
                -2.4503674189975406,
                -0.8347553280239829,
                -2.8030417880092724,
                0.9557378194387203,
                0.6554519880257673,
                -0.66760223188016
            ],
            [
                -2.637672125006264,
                -2.31568433678382,
                -2.3957531344668173,
                -2.806888757293281,
                -2.597821287155351,
                -2.779122959290147,
                0.5947988648041299,
                0.4997841376209796,
                -1.8745074357057,
                0.8651808187132017
            ],
            [
                -0.2571369393309436,
                -0.09355561712412482,
                0.1467108908769481,
                -2.4914351137762187,
                -2.6834681326090317,
                -0.8544537935425321,
                -2.124317504687196,
                -0.4075920558223392,
                -2.5994124717357234,
                0.7028430566025146
            ],
            [
                -0.6717273527613825,
                -0.9030535921186695,
                -1.7504208594563968,
                -2.4380311257273797,
                -1.096498432259973,
                -0.2984104679120419,
                -0.5546423446931001,
                -1.619140700759289,
                0.3790089609021957,
                -1.742034142328612
            ],
            [
                -0.6402962241147738,
                -2.5247272716050597,
                0.8158081191974772,
                -1.172475821399162,
                -1.1665320877460696,
                -1.2408531107466558,
                -0.28008745148223674,
                -1.1957873219473032,
                -0.2801151999829285,
                -1.1899024266572105
            ],
            [
                -2.8674958698623576,
                -1.700049927987517,
                -0.17336319025243008,
                -2.612700341468899,
                -2.6025935580118174,
                -0.9644916351473801,
                -2.1566104656312084,
                0.4848649579556136,
                -0.2948342594511094,
                -2.707315017231955
            ],
            [
                -0.7386152540372403,
                -1.7657487482032002,
                -2.350154740692693,
                -1.0025867636641568,
                -0.12181675853201432,
                -1.4663047822911037,
                -0.8103620470152759,
                0.1106046922169266,
                0.869942271161316,
                0.6633750710038295
            ],
            [
                -2.811299973058297,
                -0.06967461968751106,
                -1.3079689960274061,
                -2.860849697244531,
                0.7802091630657285,
                0.44636146020698075,
                0.8829797432702996,
                0.10599238942137452,
                -1.178637809227097,
                -2.606076047637554
            ],
            [
                0.9820395373512896,
                -1.6043371628964915,
                -1.4091810023544504,
                0.017307020502087645,
                -0.5538222948841508,
                0.7828293738229445,
                -0.6933430742229116,
                1.0372613483480029,
                -2.2900717957895957,
                -1.6453543232598988
            ]
        ],
        [
            [
                -0.10292681487076452,
                1.0501158732632754,
                -1.009230378608504,
                1.1124025259624628,
                -0.609688056083378,
                0.47255944654704957,
                0.814178368038195,
                -1.7592269694181353,
                -1.4144136516178323,
                -0.650135910820784,
                -0.4733720701038675,
                -0.9058616792990406
            ],
            [
                -0.13464904070529507,
                -2.168485168730884,
                -2.0727808556269256,
                -2.3255504245646144,
                0.7651267821210372,
                -0.45309321361461097,
                -2.1812539173248657,
                0.21777942101019765,
                0.6011996582082867,
                -2.682915406011849,
                0.11373586637391545,
                -1.2173337510639324
            ],
            [
                -2.6942452390942617,
                -1.286485151399257,
                -0.3541520392943917,
                -0.15606861303213612,
                -0.11696546467228107,
                -2.9306520276509973,
                -1.3094727301730233,
                0.4896447901669509,
                -2.1119081266379633,
                0.7711056316421877,
                -0.8027124692626864,
                -2.283644704409952
            ],
            [
                0.8384627287449543,
                -0.3652076862536965,
                -3.064806080191983,
                -1.1600294142057124,
                0.12384548663808818,
                -2.4169590052596224,
                0.9164792810975366,
                -0.8928834485658231,
                -1.4346804702415314,
                -1.330544918648934,
                -1.4655647463421013,
                -2.6346613798140464
            ],
            [
                -1.720916878377256,
                -0.39727443110110294,
                -1.0935272096756117,
                -0.5432488546671108,
                -0.465175975437306,
                -1.9346097804472928,
                -0.9512718219336498,
                -0.25846673378387125,
                -0.4941799028076093,
                -2.972623069352838,
                0.1049209047562625,
                -0.8929345097916205
            ],
            [
                -0.8781437232289763,
                -2.70461526351178,
                -0.1542095449648976,
                -0.4296435287190457,
                -2.5774659194464222,
                -1.628931563693843,
                -1.4018939536451036,
                0.6880243669056444,
                -1.9650079318580354,
                -0.09363160158229868,
                -0.7143588644953286,
                0.3625086345873111
            ],
            [
                -0.361826988659049,
                -0.6819714533429605,
                -1.870444680821502,
                -1.4389833165775754,
                -1.5608693658102766,
                -0.09478746841094161,
                -2.915973829279691,
                -0.4101966149482604,
                -0.9861934413315855,
                -0.1688493225245028,
                -2.1631583238359835,
                -0.8485245543451284
            ],
            [
                -2.046250126093485,
                -2.8951162555926637,
                -2.680116703297416,
                -1.0077941204320102,
                0.6362059175682335,
                -1.1872150044992469,
                -1.9477355508690781,
                -1.8163014629963876,
                -1.3030166746967664,
                -0.5722104715559384,
                0.3306475853979281,
                -2.1053574061437303
            ],
            [
                -0.3244283860942877,
                -1.9035137894747138,
                -2.939300594941961,
                -2.35726105744403,
                -1.5725156127902182,
                0.8452397218094974,
                -1.4928551018099923,
                -1.8772903820188045,
                0.940133852492384,
                -0.3678746214659218,
                -0.7340956630369528,
                -1.6647132671497022
            ],
            [
                -1.9227281634267246,
                0.17879399448945538,
                -0.7029435615990091,
                -2.0587037392192107,
                -1.2360413102727692,
                0.5228576866407924,
                -3.018423552558019,
                -2.8633851275015214,
                -0.5192592013677172,
                -2.413830776732616,
                0.6004644236365302,
                -0.1440633449219343
            ]
        ],
        [
            [
                -0.5029892152386183,
                -1.2243394616246204,
                -0.8093786393672203,
                -0.3316439294883628,
                -1.1100084066421214,
                0.36341411039211324,
                -0.16644097619078793,
                -0.6654741410119244,
                1.3261816334520582,
                0.10231372938012626
            ],
            [
                1.192923715465087,
                -2.140168747672714,
                -1.4489733875489978,
                -2.697092332719428,
                -2.547447280611711,
                -1.2301744294813377,
                -2.6745150213098503,
                -1.2856868375547157,
                -2.259952400196572,
                -0.9360443229055474
            ],
            [
                -1.416079641507804,
                0.48382874868679787,
                -1.495036272774602,
                -1.4771375623200875,
                -2.300040516739843,
                -0.2029680123369543,
                -0.4209349686268932,
                -0.673910333108705,
                -1.8765172912451662,
                -0.4859197577133746
            ]
        ]
    ],
    "bias_weight_set": [
        [
            -0.0002124166027287657,
            6.337923953366008e-06,
            0.0004283000493624353
        ],
        [
            -0.00015404706970226274,
            -0.0006578804837136982,
            0.00020565546110537698,
            8.624272432380209e-05,
            -0.00011948140029319699,
            0.0003448412075424124,
            6.454077618603156e-05,
            0.0002178404500722685,
            -0.0002874676154256166,
            -0.0002696832432087578
        ],
        [
            0.0003322763695554616,
            -0.00048615108312344545,
            0.0005826343599628761,
            -0.0005531098767312012,
            9.037056601330253e-05,
            -0.00017687089581723534,
            -0.00040742880163256945,
            0.0006637015424422893,
            0.0003049004381313851,
            1.3029045204082819e-05,
            0.00024244634192892048,
            0.0005334918200122599
        ],
        [
            -0.0026524163570819724,
            0.0012236766221213548,
            -0.0001606510195779115,
            -0.00010937082196583881,
            -0.00039746110947272434,
            6.634051698936978e-05,
            0.00037813274153381416,
            3.596218069562357e-05,
            -0.0007755697754770219,
            -0.00011943791846879741
        ],
        [
            -0.004221323585718105,
            -0.0028537585545684767,
            0.0074141107547322305
        ]
    ]
}